<?xml version="1.0"?>
<opencv_storage>
<cascade>
  <stageType>BOOST</stageType>
  <featureType>LBP</featureType>
  <height>50</height>
  <width>50</width>
  <stageParams>
    <boostType>GAB</boostType>
    <minHitRate>9.9500000476837158e-01</minHitRate>
    <maxFalseAlarm>5.0000000000000000e-01</maxFalseAlarm>
    <weightTrimRate>9.4999999999999996e-01</weightTrimRate>
    <maxDepth>1</maxDepth>
    <maxWeakCount>100</maxWeakCount></stageParams>
  <featureParams>
    <maxCatCount>256</maxCatCount>
    <featSize>1</featSize></featureParams>
  <stageNum>10</stageNum>
  <stages>
    <!-- stage 0 -->
    <_>
      <maxWeakCount>8</maxWeakCount>
      <stageThreshold>-2.6013413071632385e-01</stageThreshold>
      <weakClassifiers>
        <_>
          <internalNodes>
            0 -1 65 -654317149 193520302 1860687729 564885239 -308612213
            100235005 1459279762 -807403809</internalNodes>
          <leafValues>
            -1.0159529745578766e-01 7.9559969902038574e-01</leafValues></_>
        <_>
          <internalNodes>
            0 -1 6 -753417725 -749212155 -356572630 -204497795
            1596812299 1863147207 -1053431794 -235962609</internalNodes>
          <leafValues>
            -3.1964921951293945e-01 7.0093703269958496e-01</leafValues></_>
        <_>
          <internalNodes>
            0 -1 70 -404806425 -1959557600 -357391 429378058 1131302841
            218304368 217428106 -1885078037</internalNodes>
          <leafValues>
            -3.6954411864280701e-01 5.7928067445755005e-01</leafValues></_>
        <_>
          <internalNodes>
            0 -1 15 -563623729 1931947598 179756789 -162170196 -8430515
            -580931721 1895320604 -61354945</internalNodes>
          <leafValues>
            -4.2902487516403198e-01 5.6679117679595947e-01</leafValues></_>
        <_>
          <internalNodes>
            0 -1 27 -446239933 -236232128 -168167721 -112635359
            -968222033 -2008354850 1159034337 -675056765</internalNodes>
          <leafValues>
            -3.8543775677680969e-01 5.9886240959167480e-01</leafValues></_>
        <_>
          <internalNodes>
            0 -1 79 -626749789 -1981050995 -2023258140 -1621633453
            -1417837557 216370854 1473638769 -546316305</internalNodes>
          <leafValues>
            -4.2566502094268799e-01 5.7011574506759644e-01</leafValues></_>
        <_>
          <internalNodes>
            0 -1 49 -264048000 -61728240 1137721 -254213672 -1602191358
            -1073297240 680638747 1159876866</internalNodes>
          <leafValues>
            -5.6176757812500000e-01 4.3611052632331848e-01</leafValues></_>
        <_>
          <internalNodes>
            0 -1 14 1515168779 -627765238 1442840576 -1337720186
            -1006419942 992542720 -1467827830 -160014561</internalNodes>
          <leafValues>
            -4.9777022004127502e-01 4.7468736767768860e-01</leafValues></_></weakClassifiers></_>
    <!-- stage 1 -->
    <_>
      <maxWeakCount>8</maxWeakCount>
      <stageThreshold>-1.0758411884307861e+00</stageThreshold>
      <weakClassifiers>
        <_>
          <internalNodes>
            0 -1 67 -341114973 254730158 -302164559 -840256432 258642915
            192344062 1103435253 1173880053</internalNodes>
          <leafValues>
            -2.4261873960494995e-01 6.5293794870376587e-01</leafValues></_>
        <_>
          <internalNodes>
            0 -1 1 -239743189 2001910955 1618879530 -637677841
            -1138563569 438689729 1612156687 -145761521</internalNodes>
          <leafValues>
            -3.3790779113769531e-01 6.3903540372848511e-01</leafValues></_>
        <_>
          <internalNodes>
            0 -1 34 1551746799 -651763763 610988663 279805045
            -2106784508 -449356528 -1507402033 -1451595969</internalNodes>
          <leafValues>
            -3.8876393437385559e-01 5.6734901666641235e-01</leafValues></_>
        <_>
          <internalNodes>
            0 -1 68 -824444197 44765474 -891109469 -996440197 2107020530
            10796859 91125729 -269484401</internalNodes>
          <leafValues>
            -3.7728691101074219e-01 5.7326948642730713e-01</leafValues></_>
        <_>
          <internalNodes>
            0 -1 77 -1111833717 799795943 -1962126569 -270434826
            -978670407 168591102 493313587 -839649641</internalNodes>
          <leafValues>
            -4.2065834999084473e-01 5.1516383886337280e-01</leafValues></_>
        <_>
          <internalNodes>
            0 -1 10 1929341843 -1480605745 1660864401 -1749024794
            1090497783 1456963453 1123512436 -705186825</internalNodes>
          <leafValues>
            -4.2753478884696960e-01 5.3630369901657104e-01</leafValues></_>
        <_>
          <internalNodes>
            0 -1 53 883537553 2146661873 -285296148 2142237885
            1203350928 -1342858945 1333202653 -319879995</internalNodes>
          <leafValues>
            -3.7231737375259399e-01 5.8229917287826538e-01</leafValues></_>
        <_>
          <internalNodes>
            0 -1 63 -877920589 -2061226276 -16781519 230546910 111329275
            -1888682057 -1802095503 -807936697</internalNodes>
          <leafValues>
            -4.4953504204750061e-01 5.1234894990921021e-01</leafValues></_></weakClassifiers></_>
    <!-- stage 2 -->
    <_>
      <maxWeakCount>9</maxWeakCount>
      <stageThreshold>-6.3524276018142700e-01</stageThreshold>
      <weakClassifiers>
        <_>
          <internalNodes>
            0 -1 18 1479458890 -176740571 949282084 1407415875 303188560
            694861418 525342032 1393766930</internalNodes>
          <leafValues>
            -3.5056543350219727e-01 6.1433619260787964e-01</leafValues></_>
        <_>
          <internalNodes>
            0 -1 26 -620758289 2100244045 981401343 942931473 -310555640
            -167948443 1230472666 -29401921</internalNodes>
          <leafValues>
            -3.1950768828392029e-01 5.9154844284057617e-01</leafValues></_>
        <_>
          <internalNodes>
            0 -1 76 -896532766 -2120224857 239126305 -706000925
            -1962418774 248332047 -472034313 -806092849</internalNodes>
          <leafValues>
            -4.1002213954925537e-01 4.9581453204154968e-01</leafValues></_>
        <_>
          <internalNodes>
            0 -1 46 -148375087 -102618663 -1645101103 493346528
            -571821943 -1915161487 -889333583 -35974123</internalNodes>
          <leafValues>
            -3.1421536207199097e-01 6.5258437395095825e-01</leafValues></_>
        <_>
          <internalNodes>
            0 -1 9 -684207631 -808538390 662139283 -140264086 -996383045
            -828932298 1886610055 -672140585</internalNodes>
          <leafValues>
            -3.3838525414466858e-01 6.2006270885467529e-01</leafValues></_>
        <_>
          <internalNodes>
            0 -1 44 -201009774 -740128476 -268448591 -206503760
            180018570 -396198672 1097157837 -851485513</internalNodes>
          <leafValues>
            -4.1027608513832092e-01 5.3577584028244019e-01</leafValues></_>
        <_>
          <internalNodes>
            0 -1 39 523386707 -1891647888 1874763186 -1819809247
            -1342486019 -1610678472 -142740016 -1300009677</internalNodes>
          <leafValues>
            -3.8881447911262512e-01 5.4691892862319946e-01</leafValues></_>
        <_>
          <internalNodes>
            0 -1 58 1014756337 1233712826 1789224787 2075606515
            1987635183 -303775766 637365525 -806382081</internalNodes>
          <leafValues>
            -3.7845292687416077e-01 5.7899683713912964e-01</leafValues></_>
        <_>
          <internalNodes>
            0 -1 64 -720666232 1442914624 1073858564 -2138714037
            1879081608 -1438513142 1504298760 1143995247</internalNodes>
          <leafValues>
            -5.1225519180297852e-01 4.3342652916908264e-01</leafValues></_></weakClassifiers></_>
    <!-- stage 3 -->
    <_>
      <maxWeakCount>8</maxWeakCount>
      <stageThreshold>-3.8099509477615356e-01</stageThreshold>
      <weakClassifiers>
        <_>
          <internalNodes>
            0 -1 82 -433599477 -953192469 846626561 -17434765 1400858399
            -2081501235 -1789564575 -135533245</internalNodes>
          <leafValues>
            -6.9724768400192261e-02 7.1258276700973511e-01</leafValues></_>
        <_>
          <internalNodes>
            0 -1 32 -564932873 461065503 586825233 -227479689 1815545428
            -1132605850 1861938780 -76862629</internalNodes>
          <leafValues>
            -3.4676164388656616e-01 5.2649766206741333e-01</leafValues></_>
        <_>
          <internalNodes>
            0 -1 59 -134742045 -1350370806 2086762289 -847821008
            265148333 -1931804946 2011373555 -807412329</internalNodes>
          <leafValues>
            -3.8651758432388306e-01 5.0173938274383545e-01</leafValues></_>
        <_>
          <internalNodes>
            0 -1 22 -132647263 1493073565 -9359860 -647237641
            -2144084577 -998295247 1148541976 1565463839</internalNodes>
          <leafValues>
            -4.0981674194335938e-01 4.8237699270248413e-01</leafValues></_>
        <_>
          <internalNodes>
            0 -1 13 -289970981 958416548 11144923 1428979311 1607271804
            -1610741946 880227743 -53510165</internalNodes>
          <leafValues>
            -4.0694212913513184e-01 5.2251440286636353e-01</leafValues></_>
        <_>
          <internalNodes>
            0 -1 83 -1053857061 64981641 457312487 24998281 246655610
            249536252 1150670311 -872432395</internalNodes>
          <leafValues>
            -3.7390622496604919e-01 5.3938734531402588e-01</leafValues></_>
        <_>
          <internalNodes>
            0 -1 37 -2051808591 -1217896238 1526724259 -215523600
            -1354893381 745013233 494752444 -1912630249</internalNodes>
          <leafValues>
            -3.7500587105751038e-01 5.4675734043121338e-01</leafValues></_>
        <_>
          <internalNodes>
            0 -1 17 -220464572 1345273874 100783229 268964231 318987272
            138940456 -1735868278 1321509183</internalNodes>
          <leafValues>
            -5.6008070707321167e-01 3.7616965174674988e-01</leafValues></_></weakClassifiers></_>
    <!-- stage 4 -->
    <_>
      <maxWeakCount>9</maxWeakCount>
      <stageThreshold>-5.5724447965621948e-01</stageThreshold>
      <weakClassifiers>
        <_>
          <internalNodes>
            0 -1 66 -1615201645 231509930 -270248848 -412492048
            116758463 257748474 7721329 -806496917</internalNodes>
          <leafValues>
            -1.0565634816884995e-01 6.6085386276245117e-01</leafValues></_>
        <_>
          <internalNodes>
            0 -1 19 -569378893 -2029260878 2146959347 -1649190430
            1294987757 -1346441467 1375073431 -565186187</internalNodes>
          <leafValues>
            -2.9002875089645386e-01 6.1259502172470093e-01</leafValues></_>
        <_>
          <internalNodes>
            0 -1 24 -40957313 2143022663 -428409609 605506807 -44092836
            -325159587 1700000378 -10621313</internalNodes>
          <leafValues>
            -3.3811405301094055e-01 5.2125960588455200e-01</leafValues></_>
        <_>
          <internalNodes>
            0 -1 80 -877705477 788671668 -102404 834354522 1531932127
            1295617272 1342097661 -1324849</internalNodes>
          <leafValues>
            -3.3065950870513916e-01 5.6238043308258057e-01</leafValues></_>
        <_>
          <internalNodes>
            0 -1 50 -780010160 1435091028 -1870556796 -1781886888
            -1065096303 -1155518328 553768072 232718603</internalNodes>
          <leafValues>
            -4.6615558862686157e-01 4.2849767208099365e-01</leafValues></_>
        <_>
          <internalNodes>
            0 -1 12 -24651777 186772147 -1359026670 -1502298400
            125791853 792715119 -805516053 -368052737</internalNodes>
          <leafValues>
            -3.5466656088829041e-01 5.4855829477310181e-01</leafValues></_>
        <_>
          <internalNodes>
            0 -1 62 -210910744 -1800599090 -1360769407 61292239
            -151005364 -461535260 1253028943 -8001585</internalNodes>
          <leafValues>
            -3.1139245629310608e-01 6.0485172271728516e-01</leafValues></_>
        <_>
          <internalNodes>
            0 -1 36 1778382803 -84937022 1862185720 2113011696 536864749
            -537272907 896800195 -584097373</internalNodes>
          <leafValues>
            -3.2243007421493530e-01 6.0464692115783691e-01</leafValues></_>
        <_>
          <internalNodes>
            0 -1 28 25743810 -1358249146 8774800 1460125956 142922907
            -887570423 1392771540 965202882</internalNodes>
          <leafValues>
            -5.6664872169494629e-01 3.8113594055175781e-01</leafValues></_></weakClassifiers></_>
    <!-- stage 5 -->
    <_>
      <maxWeakCount>8</maxWeakCount>
      <stageThreshold>-3.5788488388061523e-01</stageThreshold>
      <weakClassifiers>
        <_>
          <internalNodes>
            0 -1 29 586199674 -609258126 1860205728 -827603 1533351683
            454786821 107495954 1531139623</internalNodes>
          <leafValues>
            -1.9387754797935486e-01 6.3436120748519897e-01</leafValues></_>
        <_>
          <internalNodes>
            0 -1 74 -80823901 -1976664286 710095523 -267951325
            -1071776242 1254936546 1953853931 -72745493</internalNodes>
          <leafValues>
            -3.1486076116561890e-01 5.6987100839614868e-01</leafValues></_>
        <_>
          <internalNodes>
            0 -1 25 -701241617 2138307583 -958539011 983921006
            -1788883896 -538100206 -162428392 -94634005</internalNodes>
          <leafValues>
            -3.5075101256370544e-01 5.3608226776123047e-01</leafValues></_>
        <_>
          <internalNodes>
            0 -1 69 -989211237 256131136 1879069315 152406226
            -1055283031 -871724851 1342667942 1337926419</internalNodes>
          <leafValues>
            -4.3715506792068481e-01 4.3705451488494873e-01</leafValues></_>
        <_>
          <internalNodes>
            0 -1 42 -1522958383 -1367429209 -1074857817 -21102827
            -1258323715 -9110539 368203253 -740334045</internalNodes>
          <leafValues>
            -4.2453691363334656e-01 4.8502001166343689e-01</leafValues></_>
        <_>
          <internalNodes>
            0 -1 35 -654651183 -788645742 -1527431168 -746852565
            -709296488 58160738 1132290818 -552640951</internalNodes>
          <leafValues>
            -3.7993681430816650e-01 5.3356802463531494e-01</leafValues></_>
        <_>
          <internalNodes>
            0 -1 85 -2076194529 -1995906737 -985661422 -434466470 750159
            167920719 946036928 -79203487</internalNodes>
          <leafValues>
            -4.3873971700668335e-01 4.6983832120895386e-01</leafValues></_>
        <_>
          <internalNodes>
            0 -1 0 -725505074 2044817290 2072845928 -417371505
            2112227746 880082862 83758351 -171712597</internalNodes>
          <leafValues>
            -4.0520721673965454e-01 5.4671043157577515e-01</leafValues></_></weakClassifiers></_>
    <!-- stage 6 -->
    <_>
      <maxWeakCount>9</maxWeakCount>
      <stageThreshold>-6.1125552654266357e-01</stageThreshold>
      <weakClassifiers>
        <_>
          <internalNodes>
            0 -1 8 -343938546 258340423 -386464050 11853567 1332702724
            241041175 -1627412795 572783207</internalNodes>
          <leafValues>
            -2.6366558670997620e-01 5.8847320079803467e-01</leafValues></_>
        <_>
          <internalNodes>
            0 -1 57 -780142101 -1951613528 922728113 -537696586
            -948113974 1299245025 -455642125 -1917063253</internalNodes>
          <leafValues>
            -3.0107688903808594e-01 5.8067399263381958e-01</leafValues></_>
        <_>
          <internalNodes>
            0 -1 23 -1835281697 -1858930020 -1074282637 -14942337
            343344150 100589518 -1351220152 -67178885</internalNodes>
          <leafValues>
            -3.3204680681228638e-01 5.5458158254623413e-01</leafValues></_>
        <_>
          <internalNodes>
            0 -1 71 1416619823 -882221245 -1180889037 -722300078
            -1610922705 -2090315923 897053875 -410264817</internalNodes>
          <leafValues>
            -3.4716260433197021e-01 5.1714402437210083e-01</leafValues></_>
        <_>
          <internalNodes>
            0 -1 45 -1467748425 -1347461024 -1198216133 -83618905
            -2004651779 -978969275 416646321 -209956507</internalNodes>
          <leafValues>
            -4.0579932928085327e-01 4.6562242507934570e-01</leafValues></_>
        <_>
          <internalNodes>
            0 -1 48 1903284661 -584195934 -1124098159 2044019769
            -615231871 -1116692995 1414078397 -1698984177</internalNodes>
          <leafValues>
            -3.0485561490058899e-01 6.2688916921615601e-01</leafValues></_>
        <_>
          <internalNodes>
            0 -1 41 678648691 219277203 16798073 -860316512 -2147088149
            -629046183 -1056305036 -728342047</internalNodes>
          <leafValues>
            -4.1446334123611450e-01 4.4862994551658630e-01</leafValues></_>
        <_>
          <internalNodes>
            0 -1 31 -209464817 622611489 1047456515 521709374 1836908632
            -1894097356 555257518 -1082404993</internalNodes>
          <leafValues>
            -3.8640531897544861e-01 5.1230329275131226e-01</leafValues></_>
        <_>
          <internalNodes>
            0 -1 51 -1616326512 633917525 -922685436 -1836362482
            -2096475512 1082902538 1621223915 587835807</internalNodes>
          <leafValues>
            -4.5885381102561951e-01 4.5178142189979553e-01</leafValues></_></weakClassifiers></_>
    <!-- stage 7 -->
    <_>
      <maxWeakCount>8</maxWeakCount>
      <stageThreshold>-2.5784498453140259e-01</stageThreshold>
      <weakClassifiers>
        <_>
          <internalNodes>
            0 -1 54 13645489 -1145536652 -1078051713 -1209999503
            -1384292356 -281184387 754280376 -1398780672</internalNodes>
          <leafValues>
            -7.1428574621677399e-02 6.7336684465408325e-01</leafValues></_>
        <_>
          <internalNodes>
            0 -1 56 -672409639 -1447899544 1333131009 -1913260296
            -402686562 -299454523 930597107 -805830838</internalNodes>
          <leafValues>
            -2.8426572680473328e-01 5.7262259721755981e-01</leafValues></_>
        <_>
          <internalNodes>
            0 -1 16 -933762367 1543253741 -1603409122 537263731
            1567400537 -805315211 -631076114 -61146277</internalNodes>
          <leafValues>
            -3.7822151184082031e-01 4.8354661464691162e-01</leafValues></_>
        <_>
          <internalNodes>
            0 -1 5 -48136249 -202536017 1877754016 -266629 1730504591
            520515422 -1066497400 -738726929</internalNodes>
          <leafValues>
            -3.1522905826568604e-01 5.7700371742248535e-01</leafValues></_>
        <_>
          <internalNodes>
            0 -1 78 1475870667 788983682 -1695945759 1578008452
            -957974677 912774948 -201879426 -271589425</internalNodes>
          <leafValues>
            -3.6409357190132141e-01 5.3796696662902832e-01</leafValues></_>
        <_>
          <internalNodes>
            0 -1 47 -880838795 186578809 331342844 -1693229451
            -807247975 -1611153409 1816227736 -306227824</internalNodes>
          <leafValues>
            -3.5702744126319885e-01 5.4120725393295288e-01</leafValues></_>
        <_>
          <internalNodes>
            0 -1 40 -1385508941 795260420 -4439 -1410306110 -1889138696
            -61710817 -438848268 -320342155</internalNodes>
          <leafValues>
            -3.7878331542015076e-01 4.8588761687278748e-01</leafValues></_>
        <_>
          <internalNodes>
            0 -1 11 699084325 252903691 -518966949 -553352933 1526941709
            -1456994038 -340082561 673725261</internalNodes>
          <leafValues>
            -5.7515043020248413e-01 3.4981203079223633e-01</leafValues></_></weakClassifiers></_>
    <!-- stage 8 -->
    <_>
      <maxWeakCount>10</maxWeakCount>
      <stageThreshold>-3.1327933073043823e-01</stageThreshold>
      <weakClassifiers>
        <_>
          <internalNodes>
            0 -1 84 78850587 -1086782926 -4777486 519994736 1039599161
            1035821051 95902837 1601721617</internalNodes>
          <leafValues>
            -3.1471136212348938e-01 5.6665050983428955e-01</leafValues></_>
        <_>
          <internalNodes>
            0 -1 33 -26260897 1974570303 981040997 962371391 -386591655
            -143180527 -231216408 -25184257</internalNodes>
          <leafValues>
            -3.1713566184043884e-01 5.4076194763183594e-01</leafValues></_>
        <_>
          <internalNodes>
            0 -1 73 -336608565 747613696 2080039897 -1054085401
            -152747025 186976677 368877478 -1357908053</internalNodes>
          <leafValues>
            -3.4699890017509460e-01 4.9071344733238220e-01</leafValues></_>
        <_>
          <internalNodes>
            0 -1 20 -2054757965 -1794146038 -1862007533 2143507538
            -1039626841 -100425522 1073824427 622289143</internalNodes>
          <leafValues>
            -4.4474267959594727e-01 4.2555007338523865e-01</leafValues></_>
        <_>
          <internalNodes>
            0 -1 60 -1824794181 -1112779160 133691057 -100667649
            775419290 -1342898180 234452847 -273172513</internalNodes>
          <leafValues>
            -3.1473857164382935e-01 6.6409474611282349e-01</leafValues></_>
        <_>
          <internalNodes>
            0 -1 55 740330389 -6234375 -1342308945 -138514945
            -1946732806 -1351106699 -1476911107 -1136653308</internalNodes>
          <leafValues>
            -3.9800485968589783e-01 4.8051279783248901e-01</leafValues></_>
        <_>
          <internalNodes>
            0 -1 4 -1927971785 39453637 353448412 -297848361 -1247211179
            -516603741 -293024480 -1355683499</internalNodes>
          <leafValues>
            -4.2871057987213135e-01 4.5693406462669373e-01</leafValues></_>
        <_>
          <internalNodes>
            0 -1 81 1609815561 -1011356157 999044977 -21562587
            -277446901 67637119 -304648301 -1395669031</internalNodes>
          <leafValues>
            -3.9601695537567139e-01 5.1624196767807007e-01</leafValues></_>
        <_>
          <internalNodes>
            0 -1 43 -805156613 -728075427 -788428677 520620465 193482394
            -74842042 -1715449814 -546830145</internalNodes>
          <leafValues>
            -3.6734458804130554e-01 5.5115097761154175e-01</leafValues></_>
        <_>
          <internalNodes>
            0 -1 7 1531603050 -720951162 272666633 84148419 -530429189
            1610817536 1830823879 -1184306865</internalNodes>
          <leafValues>
            -4.2929551005363464e-01 4.7453919053077698e-01</leafValues></_></weakClassifiers></_>
    <!-- stage 9 -->
    <_>
      <maxWeakCount>9</maxWeakCount>
      <stageThreshold>-5.3340101242065430e-01</stageThreshold>
      <weakClassifiers>
        <_>
          <internalNodes>
            0 -1 75 1060171000 1067462516 1073147889 -1380428428
            239009783 -537100419 257705979 1039889625</internalNodes>
          <leafValues>
            -2.3444975912570953e-01 5.8134818077087402e-01</leafValues></_>
        <_>
          <internalNodes>
            0 -1 38 -743705645 -1691965694 1333207600 -73153374
            -821506389 -1100548285 1296324309 -675572333</internalNodes>
          <leafValues>
            -3.0612432956695557e-01 5.5699157714843750e-01</leafValues></_>
        <_>
          <internalNodes>
            0 -1 2 -849884505 -872809762 16552671 -1537098081 -674845041
            -851120369 -682297649 -478307601</internalNodes>
          <leafValues>
            -2.8901275992393494e-01 5.7784897089004517e-01</leafValues></_>
        <_>
          <internalNodes>
            0 -1 72 -115678431 2137956099 1878995249 2100065633
            883644351 -922362001 -100831029 -452941213</internalNodes>
          <leafValues>
            -3.2742092013359070e-01 5.2675402164459229e-01</leafValues></_>
        <_>
          <internalNodes>
            0 -1 21 974372823 -1893221085 -129040414 -1053068 1321147643
            -1929396259 1368396213 -691547049</internalNodes>
          <leafValues>
            -3.8744080066680908e-01 4.8252019286155701e-01</leafValues></_>
        <_>
          <internalNodes>
            0 -1 52 368172533 463863038 1341633899 -1079472176
            -1917787213 -823771649 536194970 -1987109423</internalNodes>
          <leafValues>
            -3.7192356586456299e-01 5.3844898939132690e-01</leafValues></_>
        <_>
          <internalNodes>
            0 -1 61 -719792725 -821898598 33636823 -1920790432
            1359014059 -1978957696 1233797347 1273305363</internalNodes>
          <leafValues>
            -4.2643174529075623e-01 4.4814756512641907e-01</leafValues></_>
        <_>
          <internalNodes>
            0 -1 30 -1527793721 -806617166 1202667425 -579928221
            233617151 -324569603 352137765 -687870153</internalNodes>
          <leafValues>
            -3.7790480256080627e-01 5.2073252201080322e-01</leafValues></_>
        <_>
          <internalNodes>
            0 -1 3 -1879472313 -2127368260 -318773325 -1381843416
            -269499915 -561191041 -1501569612 -377894307</internalNodes>
          <leafValues>
            -3.5724458098411560e-01 5.2690404653549194e-01</leafValues></_></weakClassifiers></_></stages>
  <features>
    <_>
      <rect>
        0 9 4 9</rect></_>
    <_>
      <rect>
        0 17 4 6</rect></_>
    <_>
      <rect>
        0 21 3 5</rect></_>
    <_>
      <rect>
        0 25 2 4</rect></_>
    <_>
      <rect>
        0 30 1 1</rect></_>
    <_>
      <rect>
        1 16 3 6</rect></_>
    <_>
      <rect>
        1 18 3 6</rect></_>
    <_>
      <rect>
        1 20 3 8</rect></_>
    <_>
      <rect>
        1 23 2 3</rect></_>
    <_>
      <rect>
        3 11 3 4</rect></_>
    <_>
      <rect>
        3 14 2 3</rect></_>
    <_>
      <rect>
        3 21 1 4</rect></_>
    <_>
      <rect>
        3 24 1 2</rect></_>
    <_>
      <rect>
        3 26 1 4</rect></_>
    <_>
      <rect>
        3 26 2 4</rect></_>
    <_>
      <rect>
        3 26 3 5</rect></_>
    <_>
      <rect>
        3 29 3 5</rect></_>
    <_>
      <rect>
        3 34 3 3</rect></_>
    <_>
      <rect>
        4 3 5 13</rect></_>
    <_>
      <rect>
        4 8 2 4</rect></_>
    <_>
      <rect>
        4 8 2 6</rect></_>
    <_>
      <rect>
        4 13 1 2</rect></_>
    <_>
      <rect>
        4 14 2 6</rect></_>
    <_>
      <rect>
        4 19 1 4</rect></_>
    <_>
      <rect>
        4 29 3 5</rect></_>
    <_>
      <rect>
        4 30 2 3</rect></_>
    <_>
      <rect>
        4 31 3 4</rect></_>
    <_>
      <rect>
        5 7 3 5</rect></_>
    <_>
      <rect>
        5 10 2 3</rect></_>
    <_>
      <rect>
        5 11 5 11</rect></_>
    <_>
      <rect>
        5 16 1 2</rect></_>
    <_>
      <rect>
        5 23 1 3</rect></_>
    <_>
      <rect>
        5 26 2 4</rect></_>
    <_>
      <rect>
        5 29 2 5</rect></_>
    <_>
      <rect>
        5 34 3 4</rect></_>
    <_>
      <rect>
        6 1 9 5</rect></_>
    <_>
      <rect>
        6 5 2 2</rect></_>
    <_>
      <rect>
        6 5 3 3</rect></_>
    <_>
      <rect>
        6 5 4 3</rect></_>
    <_>
      <rect>
        6 8 1 1</rect></_>
    <_>
      <rect>
        6 11 1 1</rect></_>
    <_>
      <rect>
        7 7 1 1</rect></_>
    <_>
      <rect>
        7 9 1 1</rect></_>
    <_>
      <rect>
        7 27 3 6</rect></_>
    <_>
      <rect>
        8 4 4 4</rect></_>
    <_>
      <rect>
        8 8 1 1</rect></_>
    <_>
      <rect>
        12 3 2 2</rect></_>
    <_>
      <rect>
        12 4 1 1</rect></_>
    <_>
      <rect>
        13 0 5 4</rect></_>
    <_>
      <rect>
        13 4 5 3</rect></_>
    <_>
      <rect>
        14 2 3 3</rect></_>
    <_>
      <rect>
        15 2 11 16</rect></_>
    <_>
      <rect>
        15 4 2 2</rect></_>
    <_>
      <rect>
        16 3 2 2</rect></_>
    <_>
      <rect>
        19 4 1 1</rect></_>
    <_>
      <rect>
        19 5 1 1</rect></_>
    <_>
      <rect>
        35 31 4 5</rect></_>
    <_>
      <rect>
        35 34 3 3</rect></_>
    <_>
      <rect>
        36 31 3 4</rect></_>
    <_>
      <rect>
        37 33 3 3</rect></_>
    <_>
      <rect>
        37 34 2 4</rect></_>
    <_>
      <rect>
        37 35 3 3</rect></_>
    <_>
      <rect>
        38 9 4 8</rect></_>
    <_>
      <rect>
        38 34 2 3</rect></_>
    <_>
      <rect>
        39 14 3 5</rect></_>
    <_>
      <rect>
        39 29 2 3</rect></_>
    <_>
      <rect>
        39 31 2 3</rect></_>
    <_>
      <rect>
        39 32 2 3</rect></_>
    <_>
      <rect>
        40 22 2 4</rect></_>
    <_>
      <rect>
        40 28 2 3</rect></_>
    <_>
      <rect>
        41 17 2 6</rect></_>
    <_>
      <rect>
        41 17 3 6</rect></_>
    <_>
      <rect>
        41 17 3 7</rect></_>
    <_>
      <rect>
        41 19 2 4</rect></_>
    <_>
      <rect>
        41 20 3 5</rect></_>
    <_>
      <rect>
        41 25 1 6</rect></_>
    <_>
      <rect>
        41 27 2 3</rect></_>
    <_>
      <rect>
        41 28 2 4</rect></_>
    <_>
      <rect>
        42 18 2 3</rect></_>
    <_>
      <rect>
        42 25 2 3</rect></_>
    <_>
      <rect>
        43 17 1 5</rect></_>
    <_>
      <rect>
        43 20 2 5</rect></_>
    <_>
      <rect>
        43 23 2 3</rect></_>
    <_>
      <rect>
        43 25 1 3</rect></_>
    <_>
      <rect>
        45 16 1 6</rect></_>
    <_>
      <rect>
        45 22 1 2</rect></_></features></cascade>
</opencv_storage>
