<?xml version="1.0"?>
<opencv_storage>
<cascade>
  <stageType>BOOST</stageType>
  <featureType>HAAR</featureType>
  <height>30</height>
  <width>30</width>
  <stageParams>
    <boostType>GAB</boostType>
    <minHitRate>9.9500000476837158e-01</minHitRate>
    <maxFalseAlarm>5.0000000000000000e-01</maxFalseAlarm>
    <weightTrimRate>9.4999999999999996e-01</weightTrimRate>
    <maxDepth>1</maxDepth>
    <maxWeakCount>100</maxWeakCount></stageParams>
  <featureParams>
    <maxCatCount>0</maxCatCount>
    <featSize>1</featSize>
    <mode>BASIC</mode></featureParams>
  <stageNum>9</stageNum>
  <stages>
    <!-- stage 0 -->
    <_>
      <maxWeakCount>4</maxWeakCount>
      <stageThreshold>-1.3037214279174805e+00</stageThreshold>
      <weakClassifiers>
        <_>
          <internalNodes>
            0 -1 39 -1.1780926026403904e-02</internalNodes>
          <leafValues>
            8.1390136480331421e-01 -7.9955947399139404e-01</leafValues></_>
        <_>
          <internalNodes>
            0 -1 41 1.1335348710417747e-02</internalNodes>
          <leafValues>
            -6.7148160934448242e-01 7.9538404941558838e-01</leafValues></_>
        <_>
          <internalNodes>
            0 -1 4 3.3178336918354034e-02</internalNodes>
          <leafValues>
            -5.9347242116928101e-01 6.0118901729583740e-01</leafValues></_>
        <_>
          <internalNodes>
            0 -1 48 -3.7151232827454805e-03</internalNodes>
          <leafValues>
            7.6630651950836182e-01 -4.3386936187744141e-01</leafValues></_></weakClassifiers></_>
    <!-- stage 1 -->
    <_>
      <maxWeakCount>5</maxWeakCount>
      <stageThreshold>-1.8657436370849609e+00</stageThreshold>
      <weakClassifiers>
        <_>
          <internalNodes>
            0 -1 46 -1.1172480881214142e-02</internalNodes>
          <leafValues>
            7.4772727489471436e-01 -7.1521741151809692e-01</leafValues></_>
        <_>
          <internalNodes>
            0 -1 33 1.4260869473218918e-02</internalNodes>
          <leafValues>
            -6.6187757253646851e-01 6.1531734466552734e-01</leafValues></_>
        <_>
          <internalNodes>
            0 -1 26 -3.3393654972314835e-02</internalNodes>
          <leafValues>
            3.9849579334259033e-01 -7.2954565286636353e-01</leafValues></_>
        <_>
          <internalNodes>
            0 -1 49 -2.5020665489137173e-03</internalNodes>
          <leafValues>
            5.5100929737091064e-01 -5.8066248893737793e-01</leafValues></_>
        <_>
          <internalNodes>
            0 -1 5 4.6610869467258453e-02</internalNodes>
          <leafValues>
            -4.5563542842864990e-01 6.6538596153259277e-01</leafValues></_></weakClassifiers></_>
    <!-- stage 2 -->
    <_>
      <maxWeakCount>4</maxWeakCount>
      <stageThreshold>-9.4492924213409424e-01</stageThreshold>
      <weakClassifiers>
        <_>
          <internalNodes>
            0 -1 36 2.4115785956382751e-02</internalNodes>
          <leafValues>
            -5.6703078746795654e-01 7.2005045413970947e-01</leafValues></_>
        <_>
          <internalNodes>
            0 -1 35 -4.9722231924533844e-03</internalNodes>
          <leafValues>
            7.1963864564895630e-01 -4.7223266959190369e-01</leafValues></_>
        <_>
          <internalNodes>
            0 -1 43 2.4920605123043060e-02</internalNodes>
          <leafValues>
            -4.4797125458717346e-01 6.9628250598907471e-01</leafValues></_>
        <_>
          <internalNodes>
            0 -1 18 2.2261766716837883e-03</internalNodes>
          <leafValues>
            -6.0194826126098633e-01 5.6266021728515625e-01</leafValues></_></weakClassifiers></_>
    <!-- stage 3 -->
    <_>
      <maxWeakCount>5</maxWeakCount>
      <stageThreshold>-9.3977481126785278e-01</stageThreshold>
      <weakClassifiers>
        <_>
          <internalNodes>
            0 -1 37 2.0697902888059616e-02</internalNodes>
          <leafValues>
            -5.6291389465332031e-01 5.7046979665756226e-01</leafValues></_>
        <_>
          <internalNodes>
            0 -1 3 2.7896098792552948e-02</internalNodes>
          <leafValues>
            -6.6732627153396606e-01 4.8117163777351379e-01</leafValues></_>
        <_>
          <internalNodes>
            0 -1 59 1.0827220976352692e-02</internalNodes>
          <leafValues>
            -5.4563724994659424e-01 5.1015913486480713e-01</leafValues></_>
        <_>
          <internalNodes>
            0 -1 29 -2.5439593940973282e-02</internalNodes>
          <leafValues>
            4.3631473183631897e-01 -6.7601466178894043e-01</leafValues></_>
        <_>
          <internalNodes>
            0 -1 19 -7.5010582804679871e-03</internalNodes>
          <leafValues>
            4.5632085204124451e-01 -5.2338302135467529e-01</leafValues></_></weakClassifiers></_>
    <!-- stage 4 -->
    <_>
      <maxWeakCount>7</maxWeakCount>
      <stageThreshold>-1.0684605836868286e+00</stageThreshold>
      <weakClassifiers>
        <_>
          <internalNodes>
            0 -1 53 2.2613262757658958e-02</internalNodes>
          <leafValues>
            -4.4181644916534424e-01 6.2853294610977173e-01</leafValues></_>
        <_>
          <internalNodes>
            0 -1 6 2.3889085277915001e-02</internalNodes>
          <leafValues>
            -3.7975347042083740e-01 6.6152304410934448e-01</leafValues></_>
        <_>
          <internalNodes>
            0 -1 21 -5.4357503540813923e-03</internalNodes>
          <leafValues>
            5.9767115116119385e-01 -3.8403895497322083e-01</leafValues></_>
        <_>
          <internalNodes>
            0 -1 38 3.1585242599248886e-02</internalNodes>
          <leafValues>
            -3.7575188279151917e-01 6.2096035480499268e-01</leafValues></_>
        <_>
          <internalNodes>
            0 -1 20 8.0126263201236725e-03</internalNodes>
          <leafValues>
            -4.8436719179153442e-01 4.8941293358802795e-01</leafValues></_>
        <_>
          <internalNodes>
            0 -1 23 4.1481219232082367e-03</internalNodes>
          <leafValues>
            -4.4669002294540405e-01 4.9676382541656494e-01</leafValues></_>
        <_>
          <internalNodes>
            0 -1 17 4.1980091482400894e-03</internalNodes>
          <leafValues>
            -4.7327652573585510e-01 4.9096563458442688e-01</leafValues></_></weakClassifiers></_>
    <!-- stage 5 -->
    <_>
      <maxWeakCount>9</maxWeakCount>
      <stageThreshold>-1.0617476701736450e+00</stageThreshold>
      <weakClassifiers>
        <_>
          <internalNodes>
            0 -1 60 -1.4392446726560593e-02</internalNodes>
          <leafValues>
            4.7446808218955994e-01 -5.1860463619232178e-01</leafValues></_>
        <_>
          <internalNodes>
            0 -1 1 -2.3801285773515701e-02</internalNodes>
          <leafValues>
            4.8418113589286804e-01 -4.7584787011146545e-01</leafValues></_>
        <_>
          <internalNodes>
            0 -1 40 5.8401376008987427e-03</internalNodes>
          <leafValues>
            -5.6261861324310303e-01 3.9466047286987305e-01</leafValues></_>
        <_>
          <internalNodes>
            0 -1 0 3.0397286638617516e-02</internalNodes>
          <leafValues>
            -4.5366817712783813e-01 4.4157508015632629e-01</leafValues></_>
        <_>
          <internalNodes>
            0 -1 50 1.5126352664083242e-03</internalNodes>
          <leafValues>
            -5.8522778749465942e-01 3.0826166272163391e-01</leafValues></_>
        <_>
          <internalNodes>
            0 -1 12 -6.9222971796989441e-03</internalNodes>
          <leafValues>
            2.9100692272186279e-01 -5.5099004507064819e-01</leafValues></_>
        <_>
          <internalNodes>
            0 -1 9 -6.2109893187880516e-03</internalNodes>
          <leafValues>
            3.2372286915779114e-01 -5.2400034666061401e-01</leafValues></_>
        <_>
          <internalNodes>
            0 -1 35 -4.8998133279383183e-03</internalNodes>
          <leafValues>
            4.5980197191238403e-01 -3.3555442094802856e-01</leafValues></_>
        <_>
          <internalNodes>
            0 -1 32 2.0493417978286743e-02</internalNodes>
          <leafValues>
            -3.9707934856414795e-01 4.1392138600349426e-01</leafValues></_></weakClassifiers></_>
    <!-- stage 6 -->
    <_>
      <maxWeakCount>10</maxWeakCount>
      <stageThreshold>-1.7120275497436523e+00</stageThreshold>
      <weakClassifiers>
        <_>
          <internalNodes>
            0 -1 54 -2.5672448799014091e-02</internalNodes>
          <leafValues>
            4.7772020101547241e-01 -5.5209583044052124e-01</leafValues></_>
        <_>
          <internalNodes>
            0 -1 24 1.2513952329754829e-02</internalNodes>
          <leafValues>
            -6.5941613912582397e-01 2.8587591648101807e-01</leafValues></_>
        <_>
          <internalNodes>
            0 -1 15 1.5276635065674782e-02</internalNodes>
          <leafValues>
            -3.4396067261695862e-01 5.3996998071670532e-01</leafValues></_>
        <_>
          <internalNodes>
            0 -1 13 4.7833314165472984e-03</internalNodes>
          <leafValues>
            -3.6931666731834412e-01 4.9227195978164673e-01</leafValues></_>
        <_>
          <internalNodes>
            0 -1 62 -2.2886258084326982e-03</internalNodes>
          <leafValues>
            3.7857493758201599e-01 -4.9800732731819153e-01</leafValues></_>
        <_>
          <internalNodes>
            0 -1 52 2.1241508424282074e-02</internalNodes>
          <leafValues>
            -3.0876600742340088e-01 6.2990510463714600e-01</leafValues></_>
        <_>
          <internalNodes>
            0 -1 25 -4.3016797862946987e-03</internalNodes>
          <leafValues>
            2.3053807020187378e-01 -7.0138549804687500e-01</leafValues></_>
        <_>
          <internalNodes>
            0 -1 8 -5.7327924296259880e-03</internalNodes>
          <leafValues>
            4.8676902055740356e-01 -3.6790484189987183e-01</leafValues></_>
        <_>
          <internalNodes>
            0 -1 10 2.0061276853084564e-02</internalNodes>
          <leafValues>
            -2.5773584842681885e-01 6.0039383172988892e-01</leafValues></_>
        <_>
          <internalNodes>
            0 -1 31 1.3063056394457817e-03</internalNodes>
          <leafValues>
            -4.1458508372306824e-01 3.8177844882011414e-01</leafValues></_></weakClassifiers></_>
    <!-- stage 7 -->
    <_>
      <maxWeakCount>10</maxWeakCount>
      <stageThreshold>-1.3128528594970703e+00</stageThreshold>
      <weakClassifiers>
        <_>
          <internalNodes>
            0 -1 57 2.8570221737027168e-02</internalNodes>
          <leafValues>
            -3.3619949221611023e-01 6.1381477117538452e-01</leafValues></_>
        <_>
          <internalNodes>
            0 -1 7 8.5571203380823135e-03</internalNodes>
          <leafValues>
            -5.6849861145019531e-01 3.3782187104225159e-01</leafValues></_>
        <_>
          <internalNodes>
            0 -1 34 -1.7753670690581203e-03</internalNodes>
          <leafValues>
            3.3922287821769714e-01 -5.2373999357223511e-01</leafValues></_>
        <_>
          <internalNodes>
            0 -1 44 2.3119995370507240e-02</internalNodes>
          <leafValues>
            -3.9947214722633362e-01 4.5756748318672180e-01</leafValues></_>
        <_>
          <internalNodes>
            0 -1 55 -2.1255217492580414e-02</internalNodes>
          <leafValues>
            7.8061586618423462e-01 -2.3370766639709473e-01</leafValues></_>
        <_>
          <internalNodes>
            0 -1 47 5.8945366181433201e-03</internalNodes>
          <leafValues>
            -4.6287736296653748e-01 3.2589879631996155e-01</leafValues></_>
        <_>
          <internalNodes>
            0 -1 61 1.6380868852138519e-02</internalNodes>
          <leafValues>
            -2.7719131112098694e-01 6.1970812082290649e-01</leafValues></_>
        <_>
          <internalNodes>
            0 -1 51 -3.8834782317280769e-03</internalNodes>
          <leafValues>
            6.8312817811965942e-01 -2.3324738442897797e-01</leafValues></_>
        <_>
          <internalNodes>
            0 -1 27 -6.6934796050190926e-03</internalNodes>
          <leafValues>
            6.4416342973709106e-01 -2.2854769229888916e-01</leafValues></_>
        <_>
          <internalNodes>
            0 -1 28 -1.5366811305284500e-02</internalNodes>
          <leafValues>
            1.9668976962566376e-01 -8.7431389093399048e-01</leafValues></_></weakClassifiers></_>
    <!-- stage 8 -->
    <_>
      <maxWeakCount>10</maxWeakCount>
      <stageThreshold>-8.8849461078643799e-01</stageThreshold>
      <weakClassifiers>
        <_>
          <internalNodes>
            0 -1 2 2.6092965155839920e-02</internalNodes>
          <leafValues>
            -4.7909200191497803e-01 4.1640704870223999e-01</leafValues></_>
        <_>
          <internalNodes>
            0 -1 22 2.6094825007021427e-03</internalNodes>
          <leafValues>
            -5.9381943941116333e-01 3.1828939914703369e-01</leafValues></_>
        <_>
          <internalNodes>
            0 -1 16 -6.0223359614610672e-03</internalNodes>
          <leafValues>
            3.2652670145034790e-01 -4.9445295333862305e-01</leafValues></_>
        <_>
          <internalNodes>
            0 -1 42 2.6151571422815323e-02</internalNodes>
          <leafValues>
            -3.3499222993850708e-01 5.0018233060836792e-01</leafValues></_>
        <_>
          <internalNodes>
            0 -1 14 -8.0564552918076515e-03</internalNodes>
          <leafValues>
            4.9142071604728699e-01 -3.3309638500213623e-01</leafValues></_>
        <_>
          <internalNodes>
            0 -1 56 2.0233770832419395e-02</internalNodes>
          <leafValues>
            -2.7832746505737305e-01 6.6064530611038208e-01</leafValues></_>
        <_>
          <internalNodes>
            0 -1 11 -4.2432248592376709e-03</internalNodes>
          <leafValues>
            3.2310229539871216e-01 -4.7993972897529602e-01</leafValues></_>
        <_>
          <internalNodes>
            0 -1 45 -9.6063287928700447e-03</internalNodes>
          <leafValues>
            5.9142011404037476e-01 -2.6415061950683594e-01</leafValues></_>
        <_>
          <internalNodes>
            0 -1 58 1.6313094645738602e-02</internalNodes>
          <leafValues>
            -3.7301710247993469e-01 4.1037693619728088e-01</leafValues></_>
        <_>
          <internalNodes>
            0 -1 30 -1.1762499343603849e-03</internalNodes>
          <leafValues>
            2.8319701552391052e-01 -5.0828158855438232e-01</leafValues></_></weakClassifiers></_></stages>
  <features>
    <_>
      <rects>
        <_>
          0 2 6 25 -1.</_>
        <_>
          3 2 3 25 2.</_></rects>
      <tilted>0</tilted></_>
    <_>
      <rects>
        <_>
          0 2 16 6 -1.</_>
        <_>
          0 2 8 3 2.</_>
        <_>
          8 5 8 3 2.</_></rects>
      <tilted>0</tilted></_>
    <_>
      <rects>
        <_>
          0 5 6 18 -1.</_>
        <_>
          3 5 3 18 2.</_></rects>
      <tilted>0</tilted></_>
    <_>
      <rects>
        <_>
          0 6 9 17 -1.</_>
        <_>
          3 6 3 17 3.</_></rects>
      <tilted>0</tilted></_>
    <_>
      <rects>
        <_>
          0 6 9 18 -1.</_>
        <_>
          3 6 3 18 3.</_></rects>
      <tilted>0</tilted></_>
    <_>
      <rects>
        <_>
          0 6 9 19 -1.</_>
        <_>
          3 6 3 19 3.</_></rects>
      <tilted>0</tilted></_>
    <_>
      <rects>
        <_>
          0 19 9 4 -1.</_>
        <_>
          3 19 3 4 3.</_></rects>
      <tilted>0</tilted></_>
    <_>
      <rects>
        <_>
          0 19 12 10 -1.</_>
        <_>
          0 19 6 5 2.</_>
        <_>
          6 24 6 5 2.</_></rects>
      <tilted>0</tilted></_>
    <_>
      <rects>
        <_>
          1 28 22 2 -1.</_>
        <_>
          1 29 22 1 2.</_></rects>
      <tilted>0</tilted></_>
    <_>
      <rects>
        <_>
          2 7 3 15 -1.</_>
        <_>
          2 12 3 5 3.</_></rects>
      <tilted>0</tilted></_>
    <_>
      <rects>
        <_>
          3 5 8 10 -1.</_>
        <_>
          3 5 4 5 2.</_>
        <_>
          7 10 4 5 2.</_></rects>
      <tilted>0</tilted></_>
    <_>
      <rects>
        <_>
          3 9 9 3 -1.</_>
        <_>
          6 9 3 3 3.</_></rects>
      <tilted>0</tilted></_>
    <_>
      <rects>
        <_>
          4 7 6 13 -1.</_>
        <_>
          6 7 2 13 3.</_></rects>
      <tilted>0</tilted></_>
    <_>
      <rects>
        <_>
          4 8 8 4 -1.</_>
        <_>
          4 8 4 2 2.</_>
        <_>
          8 10 4 2 2.</_></rects>
      <tilted>0</tilted></_>
    <_>
      <rects>
        <_>
          4 11 6 8 -1.</_>
        <_>
          4 11 3 4 2.</_>
        <_>
          7 15 3 4 2.</_></rects>
      <tilted>0</tilted></_>
    <_>
      <rects>
        <_>
          4 20 6 10 -1.</_>
        <_>
          4 20 3 5 2.</_>
        <_>
          7 25 3 5 2.</_></rects>
      <tilted>0</tilted></_>
    <_>
      <rects>
        <_>
          4 22 12 3 -1.</_>
        <_>
          10 22 6 3 2.</_></rects>
      <tilted>0</tilted></_>
    <_>
      <rects>
        <_>
          5 7 8 4 -1.</_>
        <_>
          5 7 4 2 2.</_>
        <_>
          9 9 4 2 2.</_></rects>
      <tilted>0</tilted></_>
    <_>
      <rects>
        <_>
          5 8 6 4 -1.</_>
        <_>
          5 8 3 2 2.</_>
        <_>
          8 10 3 2 2.</_></rects>
      <tilted>0</tilted></_>
    <_>
      <rects>
        <_>
          5 11 6 12 -1.</_>
        <_>
          5 11 3 6 2.</_>
        <_>
          8 17 3 6 2.</_></rects>
      <tilted>0</tilted></_>
    <_>
      <rects>
        <_>
          5 16 5 10 -1.</_>
        <_>
          5 21 5 5 2.</_></rects>
      <tilted>0</tilted></_>
    <_>
      <rects>
        <_>
          6 28 14 2 -1.</_>
        <_>
          6 29 14 1 2.</_></rects>
      <tilted>0</tilted></_>
    <_>
      <rects>
        <_>
          7 0 15 2 -1.</_>
        <_>
          7 1 15 1 2.</_></rects>
      <tilted>0</tilted></_>
    <_>
      <rects>
        <_>
          7 0 16 2 -1.</_>
        <_>
          7 1 16 1 2.</_></rects>
      <tilted>0</tilted></_>
    <_>
      <rects>
        <_>
          7 0 19 4 -1.</_>
        <_>
          7 2 19 2 2.</_></rects>
      <tilted>0</tilted></_>
    <_>
      <rects>
        <_>
          7 1 6 12 -1.</_>
        <_>
          7 7 6 6 2.</_></rects>
      <tilted>0</tilted></_>
    <_>
      <rects>
        <_>
          7 1 15 10 -1.</_>
        <_>
          7 6 15 5 2.</_></rects>
      <tilted>0</tilted></_>
    <_>
      <rects>
        <_>
          7 9 8 4 -1.</_>
        <_>
          7 9 4 2 2.</_>
        <_>
          11 11 4 2 2.</_></rects>
      <tilted>0</tilted></_>
    <_>
      <rects>
        <_>
          8 1 14 10 -1.</_>
        <_>
          8 6 14 5 2.</_></rects>
      <tilted>0</tilted></_>
    <_>
      <rects>
        <_>
          8 2 12 6 -1.</_>
        <_>
          8 5 12 3 2.</_></rects>
      <tilted>0</tilted></_>
    <_>
      <rects>
        <_>
          8 6 2 6 -1.</_>
        <_>
          8 8 2 2 3.</_></rects>
      <tilted>0</tilted></_>
    <_>
      <rects>
        <_>
          8 7 4 4 -1.</_>
        <_>
          8 7 2 2 2.</_>
        <_>
          10 9 2 2 2.</_></rects>
      <tilted>0</tilted></_>
    <_>
      <rects>
        <_>
          9 0 7 6 -1.</_>
        <_>
          9 2 7 2 3.</_></rects>
      <tilted>0</tilted></_>
    <_>
      <rects>
        <_>
          9 0 19 4 -1.</_>
        <_>
          9 2 19 2 2.</_></rects>
      <tilted>0</tilted></_>
    <_>
      <rects>
        <_>
          9 5 2 6 -1.</_>
        <_>
          9 7 2 2 3.</_></rects>
      <tilted>0</tilted></_>
    <_>
      <rects>
        <_>
          9 28 12 2 -1.</_>
        <_>
          9 29 12 1 2.</_></rects>
      <tilted>0</tilted></_>
    <_>
      <rects>
        <_>
          10 0 9 6 -1.</_>
        <_>
          10 2 9 2 3.</_></rects>
      <tilted>0</tilted></_>
    <_>
      <rects>
        <_>
          10 0 12 4 -1.</_>
        <_>
          10 2 12 2 2.</_></rects>
      <tilted>0</tilted></_>
    <_>
      <rects>
        <_>
          10 1 9 6 -1.</_>
        <_>
          10 3 9 2 3.</_></rects>
      <tilted>0</tilted></_>
    <_>
      <rects>
        <_>
          10 3 10 4 -1.</_>
        <_>
          10 5 10 2 2.</_></rects>
      <tilted>0</tilted></_>
    <_>
      <rects>
        <_>
          10 23 15 6 -1.</_>
        <_>
          10 26 15 3 2.</_></rects>
      <tilted>0</tilted></_>
    <_>
      <rects>
        <_>
          11 0 13 4 -1.</_>
        <_>
          11 2 13 2 2.</_></rects>
      <tilted>0</tilted></_>
    <_>
      <rects>
        <_>
          11 1 7 6 -1.</_>
        <_>
          11 3 7 2 3.</_></rects>
      <tilted>0</tilted></_>
    <_>
      <rects>
        <_>
          11 1 9 6 -1.</_>
        <_>
          11 3 9 2 3.</_></rects>
      <tilted>0</tilted></_>
    <_>
      <rects>
        <_>
          12 0 16 4 -1.</_>
        <_>
          12 2 16 2 2.</_></rects>
      <tilted>0</tilted></_>
    <_>
      <rects>
        <_>
          12 2 5 6 -1.</_>
        <_>
          12 4 5 2 3.</_></rects>
      <tilted>0</tilted></_>
    <_>
      <rects>
        <_>
          12 3 7 4 -1.</_>
        <_>
          12 5 7 2 2.</_></rects>
      <tilted>0</tilted></_>
    <_>
      <rects>
        <_>
          12 6 16 2 -1.</_>
        <_>
          20 6 8 2 2.</_></rects>
      <tilted>0</tilted></_>
    <_>
      <rects>
        <_>
          12 28 9 2 -1.</_>
        <_>
          12 29 9 1 2.</_></rects>
      <tilted>0</tilted></_>
    <_>
      <rects>
        <_>
          12 28 11 2 -1.</_>
        <_>
          12 29 11 1 2.</_></rects>
      <tilted>0</tilted></_>
    <_>
      <rects>
        <_>
          14 2 4 3 -1.</_>
        <_>
          14 3 4 1 3.</_></rects>
      <tilted>0</tilted></_>
    <_>
      <rects>
        <_>
          14 28 7 2 -1.</_>
        <_>
          14 29 7 1 2.</_></rects>
      <tilted>0</tilted></_>
    <_>
      <rects>
        <_>
          16 2 10 6 -1.</_>
        <_>
          16 2 5 3 2.</_>
        <_>
          21 5 5 3 2.</_></rects>
      <tilted>0</tilted></_>
    <_>
      <rects>
        <_>
          16 2 14 6 -1.</_>
        <_>
          16 2 7 3 2.</_>
        <_>
          23 5 7 3 2.</_></rects>
      <tilted>0</tilted></_>
    <_>
      <rects>
        <_>
          16 3 9 10 -1.</_>
        <_>
          16 8 9 5 2.</_></rects>
      <tilted>0</tilted></_>
    <_>
      <rects>
        <_>
          20 21 8 8 -1.</_>
        <_>
          20 21 4 4 2.</_>
        <_>
          24 25 4 4 2.</_></rects>
      <tilted>0</tilted></_>
    <_>
      <rects>
        <_>
          22 19 6 8 -1.</_>
        <_>
          25 19 3 8 2.</_></rects>
      <tilted>0</tilted></_>
    <_>
      <rects>
        <_>
          23 6 6 19 -1.</_>
        <_>
          25 6 2 19 3.</_></rects>
      <tilted>0</tilted></_>
    <_>
      <rects>
        <_>
          24 7 6 16 -1.</_>
        <_>
          26 7 2 16 3.</_></rects>
      <tilted>0</tilted></_>
    <_>
      <rects>
        <_>
          24 7 6 17 -1.</_>
        <_>
          26 7 2 17 3.</_></rects>
      <tilted>0</tilted></_>
    <_>
      <rects>
        <_>
          26 2 4 24 -1.</_>
        <_>
          28 2 2 24 2.</_></rects>
      <tilted>0</tilted></_>
    <_>
      <rects>
        <_>
          26 9 2 18 -1.</_>
        <_>
          26 18 2 9 2.</_></rects>
      <tilted>0</tilted></_>
    <_>
      <rects>
        <_>
          27 8 1 15 -1.</_>
        <_>
          27 13 1 5 3.</_></rects>
      <tilted>0</tilted></_></features></cascade>
</opencv_storage>
