<?xml version="1.0"?>
<opencv_storage>
<cascade>
  <stageType>BOOST</stageType>
  <featureType>HAAR</featureType>
  <height>39</height>
  <width>25</width>
  <stageParams>
    <boostType>GAB</boostType>
    <minHitRate>9.9500000476837158e-01</minHitRate>
    <maxFalseAlarm>5.0000000000000000e-01</maxFalseAlarm>
    <weightTrimRate>9.4999999999999996e-01</weightTrimRate>
    <maxDepth>1</maxDepth>
    <maxWeakCount>100</maxWeakCount></stageParams>
  <featureParams>
    <maxCatCount>0</maxCatCount>
    <featSize>1</featSize>
    <mode>BASIC</mode></featureParams>
  <stageNum>7</stageNum>
  <stages>
    <!-- stage 0 -->
    <_>
      <maxWeakCount>2</maxWeakCount>
      <stageThreshold>-9.0539522469043732e-02</stageThreshold>
      <weakClassifiers>
        <_>
          <internalNodes>
            0 -1 2 1.3505482673645020e-01</internalNodes>
          <leafValues>
            -9.1836732625961304e-01 9.4059407711029053e-01</leafValues></_>
        <_>
          <internalNodes>
            0 -1 1 7.5878322124481201e-02</internalNodes>
          <leafValues>
            -9.2952787876129150e-01 8.2782781124114990e-01</leafValues></_></weakClassifiers></_>
    <!-- stage 1 -->
    <_>
      <maxWeakCount>2</maxWeakCount>
      <stageThreshold>-1.5766675770282745e-01</stageThreshold>
      <weakClassifiers>
        <_>
          <internalNodes>
            0 -1 4 2.1057692170143127e-01</internalNodes>
          <leafValues>
            -7.1677559614181519e-01 7.9634964466094971e-01</leafValues></_>
        <_>
          <internalNodes>
            0 -1 5 1.7292432487010956e-02</internalNodes>
          <leafValues>
            -9.5401644706726074e-01 6.3843691349029541e-01</leafValues></_></weakClassifiers></_>
    <!-- stage 2 -->
    <_>
      <maxWeakCount>2</maxWeakCount>
      <stageThreshold>-1.3376685976982117e-01</stageThreshold>
      <weakClassifiers>
        <_>
          <internalNodes>
            0 -1 11 3.6513648228719831e-04</internalNodes>
          <leafValues>
            6.7086482048034668e-01 -9.6763753890991211e-01</leafValues></_>
        <_>
          <internalNodes>
            0 -1 6 7.1377558633685112e-03</internalNodes>
          <leafValues>
            -6.3537597656250000e-01 8.3387070894241333e-01</leafValues></_></weakClassifiers></_>
    <!-- stage 3 -->
    <_>
      <maxWeakCount>1</maxWeakCount>
      <stageThreshold>7.0161980390548706e-01</stageThreshold>
      <weakClassifiers>
        <_>
          <internalNodes>
            0 -1 11 -2.4645274970680475e-04</internalNodes>
          <leafValues>
            -9.8776757717132568e-01 7.0161980390548706e-01</leafValues></_></weakClassifiers></_>
    <!-- stage 4 -->
    <_>
      <maxWeakCount>3</maxWeakCount>
      <stageThreshold>1.4197055995464325e-01</stageThreshold>
      <weakClassifiers>
        <_>
          <internalNodes>
            0 -1 9 3.9487895555794239e-03</internalNodes>
          <leafValues>
            -9.6710526943206787e-01 6.6387957334518433e-01</leafValues></_>
        <_>
          <internalNodes>
            0 -1 14 6.6673592664301395e-03</internalNodes>
          <leafValues>
            -8.4219831228256226e-01 5.9437441825866699e-01</leafValues></_>
        <_>
          <internalNodes>
            0 -1 10 1.4769472181797028e-02</internalNodes>
          <leafValues>
            -8.8373160362243652e-01 5.1470136642456055e-01</leafValues></_></weakClassifiers></_>
    <!-- stage 5 -->
    <_>
      <maxWeakCount>4</maxWeakCount>
      <stageThreshold>-5.2430224418640137e-01</stageThreshold>
      <weakClassifiers>
        <_>
          <internalNodes>
            0 -1 7 9.8853628151118755e-04</internalNodes>
          <leafValues>
            -8.9102566242218018e-01 6.5488213300704956e-01</leafValues></_>
        <_>
          <internalNodes>
            0 -1 12 1.0142593237105757e-04</internalNodes>
          <leafValues>
            4.2906203866004944e-01 -9.5335674285888672e-01</leafValues></_>
        <_>
          <internalNodes>
            0 -1 0 2.1080572158098221e-02</internalNodes>
          <leafValues>
            -5.6388014554977417e-01 7.3937773704528809e-01</leafValues></_>
        <_>
          <internalNodes>
            0 -1 3 1.3244410511106253e-03</internalNodes>
          <leafValues>
            -8.4605228900909424e-01 5.0154149532318115e-01</leafValues></_></weakClassifiers></_>
    <!-- stage 6 -->
    <_>
      <maxWeakCount>2</maxWeakCount>
      <stageThreshold>-1.7424093186855316e-01</stageThreshold>
      <weakClassifiers>
        <_>
          <internalNodes>
            0 -1 13 -1.5550816897302866e-04</internalNodes>
          <leafValues>
            -9.4019931554794312e-01 6.5304422378540039e-01</leafValues></_>
        <_>
          <internalNodes>
            0 -1 8 -2.1154610440135002e-03</internalNodes>
          <leafValues>
            7.6595842838287354e-01 -5.5644249916076660e-01</leafValues></_></weakClassifiers></_></stages>
  <features>
    <_>
      <rects>
        <_>
          2 2 4 36 -1.</_>
        <_>
          4 2 2 36 2.</_></rects>
      <tilted>0</tilted></_>
    <_>
      <rects>
        <_>
          3 13 16 10 -1.</_>
        <_>
          11 13 8 10 2.</_></rects>
      <tilted>0</tilted></_>
    <_>
      <rects>
        <_>
          6 10 18 16 -1.</_>
        <_>
          12 10 6 16 3.</_></rects>
      <tilted>0</tilted></_>
    <_>
      <rects>
        <_>
          6 14 4 3 -1.</_>
        <_>
          8 14 2 3 2.</_></rects>
      <tilted>0</tilted></_>
    <_>
      <rects>
        <_>
          7 7 18 21 -1.</_>
        <_>
          13 7 6 21 3.</_></rects>
      <tilted>0</tilted></_>
    <_>
      <rects>
        <_>
          7 8 7 21 -1.</_>
        <_>
          7 15 7 7 3.</_></rects>
      <tilted>0</tilted></_>
    <_>
      <rects>
        <_>
          8 0 8 4 -1.</_>
        <_>
          8 2 8 2 2.</_></rects>
      <tilted>0</tilted></_>
    <_>
      <rects>
        <_>
          8 19 9 1 -1.</_>
        <_>
          11 19 3 1 3.</_></rects>
      <tilted>0</tilted></_>
    <_>
      <rects>
        <_>
          9 37 8 2 -1.</_>
        <_>
          9 38 8 1 2.</_></rects>
      <tilted>0</tilted></_>
    <_>
      <rects>
        <_>
          10 16 8 15 -1.</_>
        <_>
          10 21 8 5 3.</_></rects>
      <tilted>0</tilted></_>
    <_>
      <rects>
        <_>
          11 2 7 14 -1.</_>
        <_>
          11 9 7 7 2.</_></rects>
      <tilted>0</tilted></_>
    <_>
      <rects>
        <_>
          14 14 3 9 -1.</_>
        <_>
          14 17 3 3 3.</_></rects>
      <tilted>0</tilted></_>
    <_>
      <rects>
        <_>
          14 15 3 4 -1.</_>
        <_>
          14 17 3 2 2.</_></rects>
      <tilted>0</tilted></_>
    <_>
      <rects>
        <_>
          14 17 4 6 -1.</_>
        <_>
          14 20 4 3 2.</_></rects>
      <tilted>0</tilted></_>
    <_>
      <rects>
        <_>
          14 18 9 4 -1.</_>
        <_>
          17 18 3 4 3.</_></rects>
      <tilted>0</tilted></_></features></cascade>
</opencv_storage>
