<?xml version="1.0"?>
<opencv_storage>
<cascade>
  <stageType>BOOST</stageType>
  <featureType>HAAR</featureType>
  <height>40</height>
  <width>40</width>
  <stageParams>
    <boostType>GAB</boostType>
    <minHitRate>9.9500000476837158e-01</minHitRate>
    <maxFalseAlarm>5.0000000000000000e-01</maxFalseAlarm>
    <weightTrimRate>9.4999999999999996e-01</weightTrimRate>
    <maxDepth>1</maxDepth>
    <maxWeakCount>100</maxWeakCount></stageParams>
  <featureParams>
    <maxCatCount>0</maxCatCount>
    <featSize>1</featSize>
    <mode>BASIC</mode></featureParams>
  <stageNum>5</stageNum>
  <stages>
    <!-- stage 0 -->
    <_>
      <maxWeakCount>2</maxWeakCount>
      <stageThreshold>-1.1285534501075745e-01</stageThreshold>
      <weakClassifiers>
        <_>
          <internalNodes>
            0 -1 1 -4.2166423797607422e-01</internalNodes>
          <leafValues>
            9.5840173959732056e-01 -9.8506450653076172e-01</leafValues></_>
        <_>
          <internalNodes>
            0 -1 0 -1.4319837093353271e-01</internalNodes>
          <leafValues>
            8.7220913171768188e-01 -8.7977176904678345e-01</leafValues></_></weakClassifiers></_>
    <!-- stage 1 -->
    <_>
      <maxWeakCount>2</maxWeakCount>
      <stageThreshold>-1.4547878503799438e-01</stageThreshold>
      <weakClassifiers>
        <_>
          <internalNodes>
            0 -1 7 -1.2849646806716919e-01</internalNodes>
          <leafValues>
            8.3264464139938354e-01 -9.6187680959701538e-01</leafValues></_>
        <_>
          <internalNodes>
            0 -1 10 1.5266603790223598e-02</internalNodes>
          <leafValues>
            -8.2924294471740723e-01 8.1639802455902100e-01</leafValues></_></weakClassifiers></_>
    <!-- stage 2 -->
    <_>
      <maxWeakCount>3</maxWeakCount>
      <stageThreshold>-1.0822020769119263e+00</stageThreshold>
      <weakClassifiers>
        <_>
          <internalNodes>
            0 -1 5 1.5555007383227348e-02</internalNodes>
          <leafValues>
            -8.2006919384002686e-01 8.0053907632827759e-01</leafValues></_>
        <_>
          <internalNodes>
            0 -1 6 -1.0119877755641937e-02</internalNodes>
          <leafValues>
            7.2924971580505371e-01 -8.5877335071563721e-01</leafValues></_>
        <_>
          <internalNodes>
            0 -1 8 -2.2045142948627472e-01</internalNodes>
          <leafValues>
            5.9664052724838257e-01 -8.6911427974700928e-01</leafValues></_></weakClassifiers></_>
    <!-- stage 3 -->
    <_>
      <maxWeakCount>2</maxWeakCount>
      <stageThreshold>-2.3127801716327667e-01</stageThreshold>
      <weakClassifiers>
        <_>
          <internalNodes>
            0 -1 3 -2.3403212428092957e-02</internalNodes>
          <leafValues>
            7.7384054660797119e-01 -8.5807383060455322e-01</leafValues></_>
        <_>
          <internalNodes>
            0 -1 9 -5.6338913738727570e-02</internalNodes>
          <leafValues>
            6.2679582834243774e-01 -8.5558986663818359e-01</leafValues></_></weakClassifiers></_>
    <!-- stage 4 -->
    <_>
      <maxWeakCount>2</maxWeakCount>
      <stageThreshold>-1.1071157455444336e-01</stageThreshold>
      <weakClassifiers>
        <_>
          <internalNodes>
            0 -1 2 -5.2259230613708496e-01</internalNodes>
          <leafValues>
            7.5245988368988037e-01 -8.4222060441970825e-01</leafValues></_>
        <_>
          <internalNodes>
            0 -1 4 -1.5422707796096802e-01</internalNodes>
          <leafValues>
            7.3150902986526489e-01 -7.4507963657379150e-01</leafValues></_></weakClassifiers></_></stages>
  <features>
    <_>
      <rects>
        <_>
          0 1 39 10 -1.</_>
        <_>
          13 1 13 10 3.</_></rects>
      <tilted>0</tilted></_>
    <_>
      <rects>
        <_>
          0 1 39 36 -1.</_>
        <_>
          13 1 13 36 3.</_></rects>
      <tilted>0</tilted></_>
    <_>
      <rects>
        <_>
          0 1 39 38 -1.</_>
        <_>
          13 1 13 38 3.</_></rects>
      <tilted>0</tilted></_>
    <_>
      <rects>
        <_>
          0 25 12 9 -1.</_>
        <_>
          6 25 6 9 2.</_></rects>
      <tilted>0</tilted></_>
    <_>
      <rects>
        <_>
          4 0 33 16 -1.</_>
        <_>
          4 8 33 8 2.</_></rects>
      <tilted>0</tilted></_>
    <_>
      <rects>
        <_>
          4 26 6 14 -1.</_>
        <_>
          4 33 6 7 2.</_></rects>
      <tilted>0</tilted></_>
    <_>
      <rects>
        <_>
          8 0 7 8 -1.</_>
        <_>
          8 4 7 4 2.</_></rects>
      <tilted>0</tilted></_>
    <_>
      <rects>
        <_>
          8 0 28 20 -1.</_>
        <_>
          8 10 28 10 2.</_></rects>
      <tilted>0</tilted></_>
    <_>
      <rects>
        <_>
          12 1 26 39 -1.</_>
        <_>
          12 14 26 13 3.</_></rects>
      <tilted>0</tilted></_>
    <_>
      <rects>
        <_>
          19 8 21 25 -1.</_>
        <_>
          26 8 7 25 3.</_></rects>
      <tilted>0</tilted></_>
    <_>
      <rects>
        <_>
          34 14 6 12 -1.</_>
        <_>
          37 14 3 12 2.</_></rects>
      <tilted>0</tilted></_></features></cascade>
</opencv_storage>
